%YAML:1.0
---
opencv_ml_svm:
   format: 3
   svmType: C_SVC
   kernel:
      type: RBF
      gamma: 1.
   C: 1.
   term_criteria: { epsilon:1.1920928955078125e-07, iterations:1000 }
   var_count: 2
   class_count: 2
   class_labels: !!opencv-matrix
      rows: 2
      cols: 1
      dt: i
      data: [ 0, 1 ]
   sv_total: 771
   support_vectors:
      - [ 4.52508688e-01, 7.36288846e-01 ]
      - [ 4.84217972e-01, 1.25051692e-01 ]
      - [ 4.09816623e-01, 2.04317585e-01 ]
      - [ 4.31909263e-01, 4.57851440e-01 ]
      - [ 9.44514632e-01, 4.38977599e-01 ]
      - [ 5.16869187e-01, 5.36599696e-01 ]
      - [ 5.03293812e-01, 6.75697625e-01 ]
      - [ 1.52499989e-01, 5.83674610e-01 ]
      - [ 4.23478484e-01, 8.25136825e-02 ]
      - [ 9.25121427e-01, 4.15753424e-01 ]
      - [ 4.05837744e-01, 5.68134546e-01 ]
      - [ 4.70372111e-01, 8.36552620e-01 ]
      - [ 1.53696164e-01, 4.74952221e-01 ]
      - [ 4.97757524e-01, 2.25368947e-01 ]
      - [ 1.25287995e-01, 5.46997368e-01 ]
      - [ 8.13902855e-01, 5.32938302e-01 ]
      - [ 3.83526415e-01, 5.98737836e-01 ]
      - [ 5.36187470e-01, 4.61236984e-01 ]
      - [ 4.33610588e-01, 1.52338326e-01 ]
      - [ 6.51900053e-01, 5.23740053e-01 ]
      - [ 2.01794326e-01, 4.60124612e-01 ]
      - [ 2.46416822e-01, 3.92395675e-01 ]
      - [ 2.79539227e-01, 5.62242150e-01 ]
      - [ 5.47431290e-01, 8.67386520e-01 ]
      - [ 7.49900043e-02, 5.73213875e-01 ]
      - [ 5.03476679e-01, 7.00465798e-01 ]
      - [ 5.16283333e-01, 3.73561770e-01 ]
      - [ 5.78275442e-01, 5.96729040e-01 ]
      - [ 5.70436835e-01, 1.88511267e-01 ]
      - [ 7.15219617e-01, 5.44439912e-01 ]
      - [ 4.95587081e-01, 8.71311069e-01 ]
      - [ 7.83962369e-01, 5.57598472e-01 ]
      - [ 7.41184890e-01, 4.91142035e-01 ]
      - [ 3.41894835e-01, 4.79418904e-01 ]
      - [ 5.09891808e-01, 5.41041434e-01 ]
      - [ 8.67953777e-01, 4.09685403e-01 ]
      - [ 5.50977170e-01, 4.70820338e-01 ]
      - [ 4.21056271e-01, 6.25782132e-01 ]
      - [ 5.51170647e-01, 6.74174488e-01 ]
      - [ 6.23339176e-01, 5.85904777e-01 ]
      - [ 6.75203145e-01, 5.30104339e-01 ]
      - [ 4.14445341e-01, 7.35358834e-01 ]
      - [ 4.96968150e-01, 7.34196007e-01 ]
      - [ 8.91122401e-01, 4.27964002e-01 ]
      - [ 5.19447327e-01, 3.28359693e-01 ]
      - [ 4.20791894e-01, 8.29487264e-01 ]
      - [ 5.68650723e-01, 3.08580458e-01 ]
      - [ 4.80423361e-01, 4.67484385e-01 ]
      - [ 6.98062241e-01, 5.13716757e-01 ]
      - [ 5.61425328e-01, 2.55449295e-01 ]
      - [ 5.34808099e-01, 4.86026645e-01 ]
      - [ 5.35184264e-01, 6.32161379e-01 ]
      - [ 6.71240091e-01, 6.59060121e-01 ]
      - [ 2.06155062e-01, 4.79381770e-01 ]
      - [ 6.27493680e-01, 5.17558157e-01 ]
      - [ 2.41024211e-01, 5.72668433e-01 ]
      - [ 3.33057106e-01, 6.43046260e-01 ]
      - [ 4.14146423e-01, 3.19357932e-01 ]
      - [ 2.02660203e-01, 4.82397288e-01 ]
      - [ 4.79613036e-01, 5.06866395e-01 ]
      - [ 1.60759792e-01, 4.36935306e-01 ]
      - [ 5.12792766e-01, 7.50185132e-01 ]
      - [ 7.07878888e-01, 4.20006365e-01 ]
      - [ 6.94245338e-01, 6.15137875e-01 ]
      - [ 5.37442744e-01, 4.66008365e-01 ]
      - [ 6.32220924e-01, 5.05175829e-01 ]
      - [ 5.66135824e-01, 3.24348003e-01 ]
      - [ 5.58728158e-01, 8.59407008e-01 ]
      - [ 4.57538038e-01, 7.40580976e-01 ]
      - [ 2.19201580e-01, 4.67793941e-01 ]
      - [ 5.22114694e-01, 5.36025584e-01 ]
      - [ 3.57221812e-01, 6.49356127e-01 ]
      - [ 5.34955144e-01, 9.87338901e-01 ]
      - [ 6.04695201e-01, 3.05571526e-01 ]
      - [ 1.37116507e-01, 5.22254050e-01 ]
      - [ 5.01978755e-01, 1.24589294e-01 ]
      - [ 1.16355188e-01, 5.42036176e-01 ]
      - [ 5.08010387e-01, 4.94401991e-01 ]
      - [ 5.09076536e-01, 7.64279544e-01 ]
      - [ 8.57013762e-02, 4.27111745e-01 ]
      - [ 2.63445228e-01, 4.64008957e-01 ]
      - [ 5.46140909e-01, 7.09142983e-01 ]
      - [ 5.20398915e-01, 1.84716180e-01 ]
      - [ 4.22270745e-01, 3.76908481e-02 ]
      - [ 3.76136482e-01, 4.10218775e-01 ]
      - [ 2.12568432e-01, 5.31937301e-01 ]
      - [ 5.81083179e-01, 8.49783003e-01 ]
      - [ 4.04415578e-01, 5.89665413e-01 ]
      - [ 2.65959114e-01, 4.74194050e-01 ]
      - [ 5.05869567e-01, 9.32224512e-01 ]
      - [ 3.93354177e-01, 2.87524045e-01 ]
      - [ 3.97505581e-01, 1.37411714e-01 ]
      - [ 3.28176796e-01, 4.24520850e-01 ]
      - [ 3.18133086e-01, 6.11945271e-01 ]
      - [ 5.81920564e-01, 4.32791620e-01 ]
      - [ 5.10394514e-01, 3.36597651e-01 ]
      - [ 7.83840299e-01, 5.51218867e-01 ]
      - [ 2.93728083e-01, 4.91023511e-01 ]
      - [ 6.95817053e-01, 6.51191831e-01 ]
      - [ 6.00503027e-01, 7.89501488e-01 ]
      - [ 2.19852135e-01, 5.18530607e-01 ]
      - [ 1.51527557e-03, 5.15699923e-01 ]
      - [ 3.54410857e-01, 2.81983942e-01 ]
      - [ 7.93523550e-01, 5.99860609e-01 ]
      - [ 2.93545663e-01, 4.06181425e-01 ]
      - [ 4.76041019e-01, 2.73353457e-01 ]
      - [ 5.40275216e-01, 6.79651380e-01 ]
      - [ 4.92333353e-01, 3.18450034e-01 ]
      - [ 3.79571766e-01, 5.30334592e-01 ]
      - [ 9.14014757e-01, 4.57073927e-01 ]
      - [ 3.03776506e-02, 4.57834184e-01 ]
      - [ 4.87225533e-01, 3.75613630e-01 ]
      - [ 5.24613380e-01, 6.18636131e-01 ]
      - [ 3.12601626e-01, 3.83159280e-01 ]
      - [ 3.05936247e-01, 4.86603677e-01 ]
      - [ 6.03746593e-01, 4.85673845e-01 ]
      - [ 4.56405997e-01, 7.31524587e-01 ]
      - [ 8.85037065e-01, 5.33021092e-01 ]
      - [ 4.09234345e-01, 4.40334171e-01 ]
      - [ 5.76187789e-01, 2.37859711e-01 ]
      - [ 5.35303831e-01, 8.18689048e-01 ]
      - [ 5.97776353e-01, 4.96387243e-01 ]
      - [ 5.19617610e-02, 5.30621409e-01 ]
      - [ 9.61835563e-01, 5.44182062e-01 ]
      - [ 5.59172750e-01, 9.37436342e-01 ]
      - [ 5.36478996e-01, 1.39606103e-01 ]
      - [ 4.65203524e-01, 6.91045076e-02 ]
      - [ 3.04304332e-01, 3.71073484e-01 ]
      - [ 7.88382113e-01, 5.36973238e-01 ]
      - [ 5.20753145e-01, 4.47077453e-01 ]
      - [ 3.64450127e-01, 4.75624174e-01 ]
      - [ 4.12407100e-01, 4.38167363e-01 ]
      - [ 7.47628272e-01, 5.48899412e-01 ]
      - [ 4.59108412e-01, 7.75223196e-01 ]
      - [ 3.97449404e-01, 1.79711938e-01 ]
      - [ 5.87031126e-01, 4.02687609e-01 ]
      - [ 2.86301553e-01, 4.94253844e-01 ]
      - [ 1.99578211e-01, 4.19002742e-01 ]
      - [ 5.87603509e-01, 6.31793320e-01 ]
      - [ 4.98983949e-01, 8.45953166e-01 ]
      - [ 4.34763074e-01, 1.66750252e-01 ]
      - [ 6.85065448e-01, 4.02201980e-01 ]
      - [ 3.00338089e-01, 5.00200391e-01 ]
      - [ 3.51863414e-01, 6.28709018e-01 ]
      - [ 4.17119294e-01, 3.89801502e-01 ]
      - [ 2.73761809e-01, 4.43464816e-01 ]
      - [ 5.35033166e-01, 3.98075640e-01 ]
      - [ 5.05447924e-01, 8.92834365e-01 ]
      - [ 2.07715362e-01, 5.23636401e-01 ]
      - [ 5.78798890e-01, 8.64424109e-01 ]
      - [ 4.06375587e-01, 5.51425874e-01 ]
      - [ 4.64473724e-01, 4.31843936e-01 ]
      - [ 3.07116937e-02, 4.74197567e-01 ]
      - [ 4.98522371e-02, 5.12100101e-01 ]
      - [ 7.49274850e-01, 4.21071023e-01 ]
      - [ 1.86016373e-02, 4.89734173e-01 ]
      - [ 5.30423224e-01, 1.70436040e-01 ]
      - [ 4.13180977e-01, 1.31964445e-01 ]
      - [ 6.34586096e-01, 4.77286458e-01 ]
      - [ 8.25756669e-01, 4.33413982e-01 ]
      - [ 5.57836413e-01, 2.73310393e-01 ]
      - [ 5.01196146e-01, 4.75288957e-01 ]
      - [ 5.36765039e-01, 2.60592669e-01 ]
      - [ 5.50419569e-01, 8.33381951e-01 ]
      - [ 9.45701718e-01, 4.27437276e-01 ]
      - [ 4.04495597e-01, 8.37630779e-02 ]
      - [ 7.50197291e-01, 3.90193552e-01 ]
      - [ 5.00158370e-01, 1.21381283e-01 ]
      - [ 5.64256132e-01, 2.55680531e-01 ]
      - [ 1.76752172e-02, 4.44843501e-01 ]
      - [ 4.70818996e-01, 2.95917362e-01 ]
      - [ 1.00194402e-01, 5.38268209e-01 ]
      - [ 5.19774675e-01, 9.25125837e-01 ]
      - [ 2.45751068e-01, 3.71693701e-01 ]
      - [ 4.12088662e-01, 3.74455512e-01 ]
      - [ 4.14815724e-01, 2.97750920e-01 ]
      - [ 3.13694179e-01, 3.00364047e-01 ]
      - [ 2.15388253e-01, 4.29573208e-01 ]
      - [ 5.36415696e-01, 3.70691597e-01 ]
      - [ 7.68178463e-01, 5.84952831e-01 ]
      - [ 4.98076648e-01, 4.77571636e-01 ]
      - [ 3.60882312e-01, 3.75784963e-01 ]
      - [ 4.72207665e-01, 9.14825857e-01 ]
      - [ 3.62281621e-01, 5.21797657e-01 ]
      - [ 6.89529181e-01, 5.15538931e-01 ]
      - [ 3.72815669e-01, 3.08662236e-01 ]
      - [ 5.50320148e-01, 8.65239799e-01 ]
      - [ 3.46934736e-01, 4.47285771e-01 ]
      - [ 2.44958326e-02, 5.14125943e-01 ]
      - [ 5.57635248e-01, 7.52666652e-01 ]
      - [ 6.15155518e-01, 5.59765399e-01 ]
      - [ 2.21857786e-01, 5.42803705e-01 ]
      - [ 3.48132044e-01, 4.97941226e-01 ]
      - [ 2.29406193e-01, 5.96598923e-01 ]
      - [ 4.67058271e-01, 8.41142297e-01 ]
      - [ 5.30935466e-01, 7.86525488e-01 ]
      - [ 4.33437169e-01, 4.60451573e-01 ]
      - [ 4.92528141e-01, 9.56278563e-01 ]
      - [ 9.31318581e-01, 4.37136233e-01 ]
      - [ 4.46359515e-01, 9.35033917e-01 ]
      - [ 9.57927704e-01, 4.90404814e-01 ]
      - [ 5.75522184e-01, 5.68406820e-01 ]
      - [ 6.95002735e-01, 6.33044064e-01 ]
      - [ 4.48848933e-01, 6.73097014e-01 ]
      - [ 4.99268979e-01, 9.03208792e-01 ]
      - [ 5.51333010e-01, 5.76230943e-01 ]
      - [ 9.49764609e-01, 5.36738217e-01 ]
      - [ 6.74550012e-02, 5.37008345e-01 ]
      - [ 5.42937338e-01, 6.84515536e-01 ]
      - [ 3.48787338e-01, 4.28368002e-01 ]
      - [ 4.13058698e-01, 1.67864889e-01 ]
      - [ 5.35067081e-01, 8.54216158e-01 ]
      - [ 3.96655679e-01, 2.54730761e-01 ]
      - [ 5.80496848e-01, 2.17199937e-01 ]
      - [ 5.06272495e-01, 1.33944144e-02 ]
      - [ 4.76591915e-01, 9.23353732e-01 ]
      - [ 3.83230776e-01, 5.37299454e-01 ]
      - [ 5.25244176e-01, 1.03174657e-01 ]
      - [ 5.28213382e-01, 5.86139739e-01 ]
      - [ 4.90905195e-01, 5.49361289e-01 ]
      - [ 1.57493114e-01, 5.17091691e-01 ]
      - [ 2.18008786e-01, 4.60649580e-01 ]
      - [ 8.21588099e-01, 5.66247284e-01 ]
      - [ 5.98807275e-01, 2.77738303e-01 ]
      - [ 5.09263456e-01, 3.15168500e-01 ]
      - [ 8.12154174e-01, 5.87303281e-01 ]
      - [ 5.90959668e-01, 3.92018795e-01 ]
      - [ 8.60814333e-01, 4.16315943e-01 ]
      - [ 4.91086125e-01, 5.41394711e-01 ]
      - [ 7.34924674e-01, 5.52472830e-01 ]
      - [ 5.85166812e-01, 8.30782354e-01 ]
      - [ 5.82738459e-01, 5.75110257e-01 ]
      - [ 4.62151645e-03, 5.12780070e-01 ]
      - [ 5.43489337e-01, 2.42330760e-01 ]
      - [ 1.22833297e-01, 4.87061977e-01 ]
      - [ 4.42232966e-01, 5.29389560e-01 ]
      - [ 4.94376361e-01, 6.44505501e-01 ]
      - [ 5.89286864e-01, 3.79208893e-01 ]
      - [ 4.91502136e-01, 5.11933446e-01 ]
      - [ 8.53671193e-01, 4.95684862e-01 ]
      - [ 2.67945021e-01, 5.51051855e-01 ]
      - [ 8.55648577e-01, 4.43315506e-01 ]
      - [ 5.73916435e-01, 8.99954796e-01 ]
      - [ 3.64425302e-01, 2.18846351e-01 ]
      - [ 4.25617039e-01, 4.49345201e-01 ]
      - [ 5.48292994e-01, 1.68135896e-01 ]
      - [ 5.57728767e-01, 2.00787827e-01 ]
      - [ 3.20171773e-01, 3.97126228e-01 ]
      - [ 3.76383454e-01, 3.91196012e-01 ]
      - [ 6.95571542e-01, 5.51056802e-01 ]
      - [ 1.45179972e-01, 4.97208774e-01 ]
      - [ 9.27074403e-02, 5.45342267e-01 ]
      - [ 5.45884609e-01, 8.60899627e-01 ]
      - [ 6.48033202e-01, 3.43871772e-01 ]
      - [ 4.20171350e-01, 6.28534332e-02 ]
      - [ 7.35782325e-01, 4.48510528e-01 ]
      - [ 4.41109329e-01, 3.45836952e-02 ]
      - [ 5.37824035e-01, 2.04562500e-01 ]
      - [ 7.17090309e-01, 5.88100791e-01 ]
      - [ 5.13220012e-01, 2.96915233e-01 ]
      - [ 5.60361557e-02, 4.99426514e-01 ]
      - [ 6.99495494e-01, 5.71988583e-01 ]
      - [ 4.62379813e-01, 8.24289322e-01 ]
      - [ 6.65990829e-01, 5.92191398e-01 ]
      - [ 4.52947855e-01, 8.64117086e-01 ]
      - [ 2.46748701e-02, 4.46355522e-01 ]
      - [ 5.47813177e-01, 8.15262318e-01 ]
      - [ 4.58892494e-01, 6.20958447e-01 ]
      - [ 6.86622083e-01, 4.69368935e-01 ]
      - [ 3.79163802e-01, 6.60765350e-01 ]
      - [ 4.66331363e-01, 4.66920257e-01 ]
      - [ 5.62679946e-01, 5.41310608e-02 ]
      - [ 4.15921867e-01, 5.76405108e-01 ]
      - [ 9.91906151e-02, 5.79777598e-01 ]
      - [ 4.60565537e-01, 5.23120284e-01 ]
      - [ 4.34633315e-01, 6.15618467e-01 ]
      - [ 7.80622661e-01, 4.88034070e-01 ]
      - [ 4.42811400e-01, 6.92248642e-01 ]
      - [ 6.88129306e-01, 4.27244365e-01 ]
      - [ 2.28220403e-01, 3.95447195e-01 ]
      - [ 5.51674068e-01, 1.67593256e-01 ]
      - [ 5.80754519e-01, 8.74691904e-01 ]
      - [ 4.68657613e-01, 1.39098123e-01 ]
      - [ 4.89508629e-01, 5.67272305e-02 ]
      - [ 3.49810272e-01, 6.35062039e-01 ]
      - [ 4.26249295e-01, 6.15856588e-01 ]
      - [ 2.74954230e-01, 5.68366766e-01 ]
      - [ 9.32275057e-01, 5.09397030e-01 ]
      - [ 2.16239318e-01, 5.73421478e-01 ]
      - [ 5.92102468e-01, 7.45744169e-01 ]
      - [ 9.16209042e-01, 4.51105297e-01 ]
      - [ 4.03821945e-01, 4.17910606e-01 ]
      - [ 9.83216643e-01, 4.38148111e-01 ]
      - [ 5.99763513e-01, 5.45780659e-01 ]
      - [ 4.45092380e-01, 2.90376972e-02 ]
      - [ 4.23328727e-01, 6.24375582e-01 ]
      - [ 7.42377698e-01, 4.18646127e-01 ]
      - [ 9.44824994e-01, 5.55886447e-01 ]
      - [ 7.52147317e-01, 4.24109071e-01 ]
      - [ 1.94036990e-01, 5.70960224e-01 ]
      - [ 3.87661785e-01, 6.21373177e-01 ]
      - [ 6.38075173e-01, 5.61761856e-01 ]
      - [ 4.44419533e-01, 5.24075449e-01 ]
      - [ 3.62291902e-01, 4.65561002e-01 ]
      - [ 4.83416289e-01, 3.87345165e-01 ]
      - [ 1.19849712e-01, 4.82625425e-01 ]
      - [ 7.48124301e-01, 5.31587541e-01 ]
      - [ 9.23557222e-01, 4.41484690e-01 ]
      - [ 5.54929912e-01, 5.30878790e-02 ]
      - [ 3.14866275e-01, 5.40550470e-01 ]
      - [ 3.34926635e-01, 3.41029704e-01 ]
      - [ 6.06062829e-01, 6.58361137e-01 ]
      - [ 6.47493541e-01, 7.09544420e-01 ]
      - [ 5.80354631e-01, 7.05042481e-01 ]
      - [ 4.81547922e-01, 6.34062171e-01 ]
      - [ 4.58420992e-01, 1.42219335e-01 ]
      - [ 7.18932211e-01, 5.21648824e-01 ]
      - [ 5.60461044e-01, 1.20986439e-01 ]
      - [ 4.98715080e-02, 5.55378497e-01 ]
      - [ 4.98224676e-01, 4.40175205e-01 ]
      - [ 5.70767820e-01, 4.72662151e-01 ]
      - [ 3.08446974e-01, 5.07468939e-01 ]
      - [ 9.78125811e-01, 5.56303442e-01 ]
      - [ 7.97377229e-02, 5.20733178e-01 ]
      - [ 3.04466486e-01, 5.67772925e-01 ]
      - [ 4.82305735e-01, 8.00099492e-01 ]
      - [ 3.95589024e-01, 3.79260182e-01 ]
      - [ 5.51935554e-01, 4.74794179e-01 ]
      - [ 8.08533609e-01, 5.83569586e-01 ]
      - [ 3.93382013e-01, 6.46513999e-01 ]
      - [ 4.47192997e-01, 1.16252974e-01 ]
      - [ 3.81667465e-01, 5.45610726e-01 ]
      - [ 1.53406970e-02, 5.03569841e-01 ]
      - [ 6.92695379e-01, 4.44849432e-01 ]
      - [ 4.08437669e-01, 7.20112920e-01 ]
      - [ 8.79842639e-01, 5.03391027e-01 ]
      - [ 3.76093209e-01, 6.33541942e-01 ]
      - [ 1.12052463e-01, 5.17239928e-01 ]
      - [ 8.36364686e-01, 5.15866160e-01 ]
      - [ 7.22459018e-01, 5.60511589e-01 ]
      - [ 5.58813393e-01, 1.68027222e-01 ]
      - [ 3.44136119e-01, 5.77604532e-01 ]
      - [ 4.80822891e-01, 7.68348947e-02 ]
      - [ 5.74734449e-01, 2.17058912e-01 ]
      - [ 5.70970178e-01, 1.75194398e-01 ]
      - [ 7.84532309e-01, 5.04425764e-01 ]
      - [ 4.26902398e-02, 4.31128144e-01 ]
      - [ 4.51484472e-01, 8.46805990e-01 ]
      - [ 5.73223472e-01, 6.59406126e-01 ]
      - [ 4.63588119e-01, 8.10090542e-01 ]
      - [ 1.63936451e-01, 3.97985399e-01 ]
      - [ 5.36192894e-01, 4.82856072e-02 ]
      - [ 5.68131149e-01, 5.95926046e-01 ]
      - [ 2.68079132e-01, 5.01257956e-01 ]
      - [ 4.16647404e-01, 1.45702481e-01 ]
      - [ 8.63362074e-01, 5.34104168e-01 ]
      - [ 5.66018879e-01, 2.24272966e-01 ]
      - [ 7.07696974e-01, 4.46029007e-01 ]
      - [ 3.73482168e-01, 2.27349907e-01 ]
      - [ 7.84084678e-01, 4.38816875e-01 ]
      - [ 3.97261186e-03, 4.85688627e-01 ]
      - [ 4.43281531e-01, 8.55018735e-01 ]
      - [ 4.62259561e-01, 1.31229267e-01 ]
      - [ 1.91087082e-01, 5.71697474e-01 ]
      - [ 3.34133983e-01, 6.12188697e-01 ]
      - [ 6.65240586e-01, 4.22446966e-01 ]
      - [ 5.22414565e-01, 7.58859754e-01 ]
      - [ 4.44198251e-01, 5.97399652e-01 ]
      - [ 6.94645643e-01, 5.64998686e-01 ]
      - [ 6.00843310e-01, 5.81352115e-01 ]
      - [ 1.78027272e-01, 5.62987804e-01 ]
      - [ 5.02840698e-01, 2.32161611e-01 ]
      - [ 6.01898849e-01, 5.03824174e-01 ]
      - [ 2.85022080e-01, 4.94402736e-01 ]
      - [ 3.56786013e-01, 2.33091086e-01 ]
      - [ 5.29063821e-01, 4.34296399e-01 ]
      - [ 2.70838827e-01, 4.68558580e-01 ]
      - [ 4.44553763e-01, 4.99468446e-01 ]
      - [ 4.04405057e-01, 4.98996913e-01 ]
      - [ 6.49524033e-01, 3.52070302e-01 ]
      - [ 5.08579493e-01, 2.02399537e-01 ]
      - [ 3.82395953e-01, 7.11144626e-01 ]
      - [ 8.73930395e-01, 4.14185733e-01 ]
      - [ 1.30198181e-01, 4.35963869e-01 ]
      - [ 3.46006721e-01, 5.75770795e-01 ]
      - [ 5.34252226e-01, 2.34974071e-01 ]
      - [ 4.40375060e-01, 2.74222106e-01 ]
      - [ 3.86528075e-01, 3.63953620e-01 ]
      - [ 9.18720841e-01, 5.28853893e-01 ]
      - [ 5.70683002e-01, 9.21526432e-01 ]
      - [ 6.37058616e-01, 4.62481409e-01 ]
      - [ 3.92814338e-01, 1.78286940e-01 ]
      - [ 8.53258789e-01, 5.31507373e-01 ]
      - [ 3.30266565e-01, 5.17364621e-01 ]
      - [ 8.94669443e-02, 5.63699245e-01 ]
      - [ 8.43795002e-01, 4.95438635e-01 ]
      - [ 5.92973948e-01, 3.52218300e-01 ]
      - [ 3.08856726e-01, 3.67328078e-01 ]
      - [ 4.93360519e-01, 4.20884043e-01 ]
      - [ 9.92149115e-02, 5.48108816e-01 ]
      - [ 5.37952423e-01, 3.78330767e-01 ]
      - [ 6.83115125e-01, 6.09365165e-01 ]
      - [ 4.63428676e-01, 9.58123505e-01 ]
      - [ 4.49240267e-01, 6.47094607e-01 ]
      - [ 5.42043090e-01, 1.11592807e-01 ]
      - [ 4.21401888e-01, 7.34979808e-01 ]
      - [ 2.91519135e-01, 4.82367218e-01 ]
      - [ 5.16081750e-01, 1.40710631e-02 ]
      - [ 7.75853157e-01, 5.10263264e-01 ]
      - [ 2.67451048e-01, 6.00578487e-01 ]
      - [ 4.96189684e-01, 8.52935612e-01 ]
      - [ 4.42159384e-01, 9.38561261e-01 ]
      - [ 4.58907723e-01, 6.61027908e-01 ]
      - [ 5.96498072e-01, 3.20646942e-01 ]
      - [ 8.02074611e-01, 4.28359985e-01 ]
      - [ 6.72328651e-01, 6.20937228e-01 ]
      - [ 7.45441973e-01, 4.71269667e-01 ]
      - [ 5.42898059e-01, 6.33938849e-01 ]
      - [ 4.87048924e-01, 7.96714306e-01 ]
      - [ 5.94401956e-01, 5.71865201e-01 ]
      - [ 7.44467139e-01, 4.42078263e-01 ]
      - [ 4.80788738e-01, 8.69975328e-01 ]
      - [ 9.47315872e-01, 4.21457112e-01 ]
      - [ 1.05428264e-01, 4.46551532e-01 ]
      - [ 9.26510274e-01, 5.04696310e-01 ]
      - [ 5.52512929e-02, 5.12793481e-01 ]
      - [ 4.27883416e-01, 2.90222555e-01 ]
      - [ 5.10115683e-01, 3.91035795e-01 ]
      - [ 4.41126019e-01, 9.78944242e-01 ]
      - [ 5.53689897e-01, 1.69611961e-01 ]
      - [ 5.48862696e-01, 3.52284312e-01 ]
      - [ 4.82447922e-01, 6.60455763e-01 ]
      - [ 4.76414979e-01, 8.33330035e-01 ]
      - [ 4.45376247e-01, 3.15637022e-01 ]
      - [ 7.01229453e-01, 4.82419550e-01 ]
      - [ 4.86957163e-01, 3.76639515e-01 ]
      - [ 2.84564555e-01, 3.72598052e-01 ]
      - [ 2.94139087e-01, 5.95134199e-01 ]
      - [ 4.33251560e-01, 2.89757997e-01 ]
      - [ 9.67400253e-01, 4.79018241e-01 ]
      - [ 4.09103036e-01, 7.63717473e-01 ]
      - [ 5.78193605e-01, 4.27934408e-01 ]
      - [ 4.57769543e-01, 9.08638835e-01 ]
      - [ 5.00008225e-01, 1.46651432e-01 ]
      - [ 4.35727209e-01, 5.35228848e-01 ]
      - [ 2.27014497e-01, 4.44200486e-01 ]
      - [ 4.84326541e-01, 3.98559809e-01 ]
      - [ 4.10776198e-01, 5.28567135e-01 ]
      - [ 1.13125578e-01, 4.19519067e-01 ]
      - [ 4.70269710e-01, 7.52387464e-01 ]
      - [ 4.75885540e-01, 6.67852163e-01 ]
      - [ 4.63354349e-01, 4.66888160e-01 ]
      - [ 4.90679234e-01, 4.85595375e-01 ]
      - [ 2.01498598e-01, 4.22082633e-01 ]
      - [ 2.03137755e-01, 4.98664945e-01 ]
      - [ 4.18462962e-01, 4.43915099e-01 ]
      - [ 1.94387853e-01, 5.89419246e-01 ]
      - [ 6.38910353e-01, 4.09944266e-01 ]
      - [ 3.15359652e-01, 5.79158545e-01 ]
      - [ 3.64052981e-01, 5.78043520e-01 ]
      - [ 6.38174832e-01, 4.80159819e-01 ]
      - [ 4.43213731e-01, 9.90501821e-01 ]
      - [ 5.66797018e-01, 4.64907140e-01 ]
      - [ 1.79152966e-01, 5.71038306e-01 ]
      - [ 4.99196619e-01, 3.99775684e-01 ]
      - [ 1.77862033e-01, 4.77872312e-01 ]
      - [ 2.10965335e-01, 4.97594118e-01 ]
      - [ 6.63536608e-01, 5.19141793e-01 ]
      - [ 5.60811043e-01, 7.29916096e-02 ]
      - [ 5.59341371e-01, 5.04560113e-01 ]
      - [ 9.26668286e-01, 5.28475404e-01 ]
      - [ 6.10364340e-02, 4.32973325e-01 ]
      - [ 5.12394905e-01, 2.00267076e-01 ]
      - [ 4.34860498e-01, 1.48360953e-01 ]
      - [ 2.39184961e-01, 4.85653013e-01 ]
      - [ 1.63738742e-01, 5.70876002e-01 ]
      - [ 3.98921609e-01, 3.36471140e-01 ]
      - [ 6.28320456e-01, 3.29770505e-01 ]
      - [ 5.94267190e-01, 8.10975015e-01 ]
      - [ 8.77971530e-01, 4.71387655e-01 ]
      - [ 4.14221793e-01, 6.64583325e-01 ]
      - [ 5.22790313e-01, 1.56656191e-01 ]
      - [ 5.81381917e-01, 7.12535024e-01 ]
      - [ 5.47626078e-01, 6.68044865e-01 ]
      - [ 6.45024061e-01, 5.17208397e-01 ]
      - [ 5.30262649e-01, 3.97005439e-01 ]
      - [ 5.37906587e-01, 6.76784098e-01 ]
      - [ 3.03305686e-01, 4.08352137e-01 ]
      - [ 4.20008659e-01, 5.70092946e-02 ]
      - [ 8.06592762e-01, 5.26208401e-01 ]
      - [ 1.47341549e-01, 5.71185589e-01 ]
      - [ 1.69194788e-01, 4.43472713e-01 ]
      - [ 4.87174869e-01, 3.53056431e-01 ]
      - [ 4.41080749e-01, 8.80750418e-02 ]
      - [ 4.92529064e-01, 6.45272791e-01 ]
      - [ 3.92939866e-01, 1.61559939e-01 ]
      - [ 9.06986594e-01, 5.29227197e-01 ]
      - [ 5.09269059e-01, 5.56037389e-02 ]
      - [ 5.69572866e-01, 8.85363758e-01 ]
      - [ 3.72046679e-01, 3.17130834e-01 ]
      - [ 4.56838876e-01, 6.42647445e-01 ]
      - [ 7.38816500e-01, 5.30335963e-01 ]
      - [ 3.61514896e-01, 5.79870045e-01 ]
      - [ 2.95484513e-01, 4.75329369e-01 ]
      - [ 1.32193074e-01, 4.28858906e-01 ]
      - [ 6.98810518e-01, 5.48547328e-01 ]
      - [ 2.90083170e-01, 4.60137218e-01 ]
      - [ 6.69586837e-01, 6.47803903e-01 ]
      - [ 4.19172049e-01, 9.45632011e-02 ]
      - [ 4.67032194e-01, 9.55871772e-03 ]
      - [ 4.38943774e-01, 5.55337548e-01 ]
      - [ 5.32977641e-01, 9.42058384e-01 ]
      - [ 2.41797090e-01, 5.31201780e-01 ]
      - [ 4.45169747e-01, 5.92909813e-01 ]
      - [ 5.23332953e-01, 8.29943180e-01 ]
      - [ 6.21931255e-01, 6.00989163e-01 ]
      - [ 5.36617696e-01, 5.76335549e-01 ]
      - [ 5.44513702e-01, 7.10237861e-01 ]
      - [ 5.94229698e-01, 3.82805943e-01 ]
      - [ 6.38710737e-01, 6.15045190e-01 ]
      - [ 6.97954118e-01, 4.49181437e-01 ]
      - [ 5.74536562e-01, 6.26712263e-01 ]
      - [ 5.48381865e-01, 2.78097689e-01 ]
      - [ 6.07271492e-01, 4.79385197e-01 ]
      - [ 4.39413428e-01, 5.80415189e-01 ]
      - [ 4.01072294e-01, 2.74833888e-01 ]
      - [ 3.90280783e-01, 5.38671494e-01 ]
      - [ 7.60871887e-01, 6.08304620e-01 ]
      - [ 4.62849200e-01, 4.14639533e-01 ]
      - [ 6.31772816e-01, 6.64592147e-01 ]
      - [ 4.11187619e-01, 4.20540795e-02 ]
      - [ 8.02383363e-01, 5.16169429e-01 ]
      - [ 9.51106176e-02, 4.92099911e-01 ]
      - [ 8.19255412e-01, 5.90368152e-01 ]
      - [ 3.61491710e-01, 5.28186500e-01 ]
      - [ 5.41903973e-01, 5.38337052e-01 ]
      - [ 2.61252791e-01, 4.54545021e-01 ]
      - [ 4.51524705e-01, 7.96100497e-01 ]
      - [ 5.32090008e-01, 8.96771133e-01 ]
      - [ 5.09279847e-01, 4.42518353e-01 ]
      - [ 5.12171090e-01, 6.81884706e-01 ]
      - [ 5.10509074e-01, 9.64375913e-01 ]
      - [ 5.81031293e-02, 5.35854995e-01 ]
      - [ 4.50179607e-01, 7.96624362e-01 ]
      - [ 8.93358648e-01, 4.54572141e-01 ]
      - [ 1.83968842e-01, 5.03097236e-01 ]
      - [ 8.53349149e-01, 5.14761567e-01 ]
      - [ 5.29952347e-01, 9.78216588e-01 ]
      - [ 7.26544201e-01, 6.30293667e-01 ]
      - [ 6.75882757e-01, 6.59328520e-01 ]
      - [ 5.16448498e-01, 3.81726176e-02 ]
      - [ 1.69913486e-01, 4.64579761e-01 ]
      - [ 4.83105391e-01, 6.13072932e-01 ]
      - [ 4.42355543e-01, 9.99747872e-01 ]
      - [ 4.41251159e-01, 9.69267488e-01 ]
      - [ 2.19095185e-01, 5.05582750e-01 ]
      - [ 5.70798159e-01, 8.65764856e-01 ]
      - [ 9.67409074e-01, 4.57629889e-01 ]
      - [ 6.47825062e-01, 6.96036100e-01 ]
      - [ 6.72994912e-01, 4.26104605e-01 ]
      - [ 5.65932095e-01, 4.87471193e-01 ]
      - [ 1.18404724e-01, 4.99183059e-01 ]
      - [ 1.14611844e-02, 4.86887217e-01 ]
      - [ 2.35280186e-01, 5.28364301e-01 ]
      - [ 5.06727278e-01, 2.11124122e-01 ]
      - [ 5.12788177e-01, 4.16670897e-04 ]
      - [ 7.75586545e-01, 4.24918354e-01 ]
      - [ 4.07944769e-01, 7.97712207e-01 ]
      - [ 4.83285934e-01, 6.65821493e-01 ]
      - [ 7.44330883e-01, 4.49457169e-01 ]
      - [ 5.01729012e-01, 9.68319952e-01 ]
      - [ 5.22798777e-01, 2.22294420e-01 ]
      - [ 5.87466359e-01, 6.04255676e-01 ]
      - [ 6.88848317e-01, 6.10359490e-01 ]
      - [ 6.75647378e-01, 5.59109569e-01 ]
      - [ 3.80349681e-02, 4.87453163e-01 ]
      - [ 5.13156235e-01, 2.05790997e-01 ]
      - [ 6.34817243e-01, 3.82982910e-01 ]
      - [ 6.29826844e-01, 5.62856793e-01 ]
      - [ 5.88136613e-01, 5.10411263e-01 ]
      - [ 6.54819429e-01, 5.76906979e-01 ]
      - [ 7.14132309e-01, 6.30768776e-01 ]
      - [ 3.50305438e-01, 3.67643625e-01 ]
      - [ 4.01085436e-01, 5.90561152e-01 ]
      - [ 1.58952475e-01, 5.22750735e-01 ]
      - [ 4.00870800e-01, 7.24056005e-01 ]
      - [ 4.90771085e-01, 1.32727757e-01 ]
      - [ 6.83272123e-01, 6.44798517e-01 ]
      - [ 4.56124604e-01, 5.22359252e-01 ]
      - [ 1.04176186e-01, 5.67332923e-01 ]
      - [ 3.49874437e-01, 6.47433281e-01 ]
      - [ 9.27131474e-01, 5.22475481e-01 ]
      - [ 6.38103843e-01, 6.57517850e-01 ]
      - [ 4.01990265e-01, 6.70319378e-01 ]
      - [ 3.11798211e-02, 5.45160055e-01 ]
      - [ 7.43150592e-01, 5.69613516e-01 ]
      - [ 5.48528373e-01, 2.16876745e-01 ]
      - [ 2.23264307e-01, 5.51007509e-01 ]
      - [ 9.52088356e-01, 5.11912763e-01 ]
      - [ 8.10383201e-01, 4.57369477e-01 ]
      - [ 3.42308342e-01, 6.34928942e-01 ]
      - [ 4.32875991e-01, 7.06144691e-01 ]
      - [ 4.63354975e-01, 7.66390324e-01 ]
      - [ 7.89816797e-01, 4.55581725e-01 ]
      - [ 5.70077896e-01, 2.37888873e-01 ]
      - [ 5.53533919e-02, 4.25034255e-01 ]
      - [ 7.88982451e-01, 5.37100315e-01 ]
      - [ 4.46798712e-01, 3.34554791e-01 ]
      - [ 5.44414699e-01, 1.81916952e-01 ]
      - [ 4.61398572e-01, 7.95300528e-02 ]
      - [ 5.73324323e-01, 9.03981209e-01 ]
      - [ 4.14416999e-01, 1.58893481e-01 ]
      - [ 5.22436023e-01, 4.24413681e-01 ]
      - [ 4.36023295e-01, 7.19296575e-01 ]
      - [ 3.62399250e-01, 4.16292697e-01 ]
      - [ 4.53688115e-01, 8.42676342e-01 ]
      - [ 1.97782978e-01, 4.61472273e-01 ]
      - [ 6.47084117e-01, 4.15377796e-01 ]
      - [ 4.63630646e-01, 3.48145775e-02 ]
      - [ 1.76209629e-01, 5.18425763e-01 ]
      - [ 5.33951856e-02, 4.36359733e-01 ]
      - [ 9.57513332e-01, 5.42950094e-01 ]
      - [ 5.29078126e-01, 4.96512884e-03 ]
      - [ 2.82041639e-01, 5.04141569e-01 ]
      - [ 5.54401755e-01, 3.31721842e-01 ]
      - [ 7.41964817e-01, 5.58539927e-01 ]
      - [ 3.88360798e-01, 4.85095292e-01 ]
      - [ 4.99790639e-01, 1.46064267e-01 ]
      - [ 8.70469213e-01, 5.10714471e-01 ]
      - [ 4.42936927e-01, 1.50830954e-01 ]
      - [ 5.70668817e-01, 6.82241380e-01 ]
      - [ 8.31999183e-01, 4.50299680e-01 ]
      - [ 3.92245919e-01, 6.92599475e-01 ]
      - [ 3.85141373e-01, 3.56719911e-01 ]
      - [ 1.73848942e-01, 4.49188709e-01 ]
      - [ 2.22415060e-01, 4.87216651e-01 ]
      - [ 5.84617972e-01, 6.56501591e-01 ]
      - [ 6.39579594e-01, 6.03226602e-01 ]
      - [ 4.31262136e-01, 9.60486710e-01 ]
      - [ 2.71193404e-02, 4.58472699e-01 ]
      - [ 5.04374564e-01, 8.94052207e-01 ]
      - [ 6.76717222e-01, 3.76626372e-01 ]
      - [ 5.37720084e-01, 3.17414194e-01 ]
      - [ 4.99591857e-01, 5.03793299e-01 ]
      - [ 6.59127057e-01, 5.29427588e-01 ]
      - [ 5.62741339e-01, 9.02595580e-01 ]
      - [ 4.51088637e-01, 8.80587995e-01 ]
      - [ 4.87140805e-01, 9.67763066e-02 ]
      - [ 3.73465151e-01, 5.52308977e-01 ]
      - [ 1.16448119e-01, 5.15954375e-01 ]
      - [ 5.60863376e-01, 2.14587063e-01 ]
      - [ 6.13274336e-01, 2.97238439e-01 ]
      - [ 7.49615669e-01, 4.61654603e-01 ]
      - [ 5.26453555e-01, 2.11651728e-01 ]
      - [ 3.71885240e-01, 4.79867548e-01 ]
      - [ 8.07648718e-01, 5.36079645e-01 ]
      - [ 4.50750828e-01, 8.30027521e-01 ]
      - [ 7.78431833e-01, 4.78911817e-01 ]
      - [ 2.23986462e-01, 5.36426067e-01 ]
      - [ 3.55715901e-01, 3.20274353e-01 ]
      - [ 4.99690026e-01, 6.08522832e-01 ]
      - [ 3.09073720e-02, 4.73301053e-01 ]
      - [ 7.38073647e-01, 5.58250427e-01 ]
      - [ 5.40730476e-01, 7.29800582e-01 ]
      - [ 5.73551714e-01, 3.61994803e-01 ]
      - [ 3.24339569e-01, 6.00173593e-01 ]
      - [ 4.85973239e-01, 1.90568119e-02 ]
      - [ 6.30895615e-01, 6.80505335e-01 ]
      - [ 9.94161367e-01, 4.45812345e-01 ]
      - [ 4.33646560e-01, 5.64619899e-01 ]
      - [ 8.86909068e-01, 5.16924500e-01 ]
      - [ 5.37360430e-01, 9.07377541e-01 ]
      - [ 4.40231323e-01, 4.27152783e-01 ]
      - [ 5.69348991e-01, 7.95736194e-01 ]
      - [ 8.16387981e-02, 4.84217554e-01 ]
      - [ 6.40612066e-01, 5.45713723e-01 ]
      - [ 5.21314919e-01, 6.84927870e-03 ]
      - [ 4.48523253e-01, 7.61744678e-02 ]
      - [ 6.79140806e-01, 6.39215112e-01 ]
      - [ 4.83081996e-01, 5.18259943e-01 ]
      - [ 3.76182169e-01, 3.98750007e-01 ]
      - [ 9.59133804e-01, 4.94450897e-01 ]
      - [ 7.37977028e-01, 4.02413994e-01 ]
      - [ 8.68711889e-01, 4.96518016e-01 ]
      - [ 5.14176488e-01, 7.35138774e-01 ]
      - [ 4.56181973e-01, 8.81269038e-01 ]
      - [ 2.63290912e-01, 5.34991801e-01 ]
      - [ 6.86198890e-01, 5.55875063e-01 ]
      - [ 5.55812657e-01, 5.05087852e-01 ]
      - [ 4.80256796e-01, 7.72052467e-01 ]
      - [ 4.51760709e-01, 7.06165493e-01 ]
      - [ 2.50254899e-01, 3.95801872e-01 ]
      - [ 5.06895483e-01, 3.39617938e-01 ]
      - [ 5.89340866e-01, 8.02491128e-01 ]
      - [ 4.28186566e-01, 6.51449919e-01 ]
      - [ 4.64272112e-01, 1.46533668e-01 ]
      - [ 2.39501774e-01, 4.76369321e-01 ]
      - [ 4.22868013e-01, 8.88870656e-01 ]
      - [ 1.41594157e-01, 5.73843479e-01 ]
      - [ 9.46940839e-01, 4.98983949e-01 ]
      - [ 2.05671042e-01, 4.00237381e-01 ]
      - [ 6.06350183e-01, 3.41438919e-01 ]
      - [ 5.63365996e-01, 3.91556829e-01 ]
      - [ 5.24775326e-01, 7.71622837e-01 ]
      - [ 5.49829483e-01, 6.29807532e-01 ]
      - [ 3.98822248e-01, 7.28536725e-01 ]
      - [ 2.70357579e-01, 5.63058794e-01 ]
      - [ 1.32937562e-02, 4.85100836e-01 ]
      - [ 6.34530544e-01, 4.84817237e-01 ]
      - [ 5.59424341e-01, 3.96552742e-01 ]
      - [ 3.88945013e-01, 6.98044300e-01 ]
      - [ 3.44587535e-01, 6.50392115e-01 ]
      - [ 3.22412610e-01, 4.13689941e-01 ]
      - [ 5.59346974e-01, 9.56958473e-01 ]
      - [ 5.03645241e-01, 8.14350307e-01 ]
      - [ 4.62493539e-01, 9.52172279e-01 ]
      - [ 5.65275192e-01, 7.98123240e-01 ]
      - [ 5.40240765e-01, 6.91879570e-01 ]
      - [ 4.03649479e-01, 3.37957978e-01 ]
      - [ 8.20358634e-01, 4.20655131e-01 ]
      - [ 5.26610792e-01, 3.17564130e-01 ]
      - [ 5.58988571e-01, 1.47934586e-01 ]
      - [ 5.40479541e-01, 6.30205452e-01 ]
      - [ 4.74056989e-01, 9.60291028e-01 ]
      - [ 8.54357421e-01, 5.36236763e-01 ]
      - [ 7.97372580e-01, 4.20050085e-01 ]
      - [ 3.85299206e-01, 4.65308130e-01 ]
      - [ 2.62742043e-01, 4.62927669e-01 ]
      - [ 5.60421646e-01, 6.95263267e-01 ]
      - [ 2.85924286e-01, 5.40288150e-01 ]
      - [ 5.60263276e-01, 1.15682714e-01 ]
      - [ 5.39257169e-01, 1.98806792e-01 ]
      - [ 5.90838015e-01, 4.84069437e-01 ]
      - [ 5.49011230e-01, 5.74669480e-01 ]
      - [ 3.89162302e-01, 2.31950372e-01 ]
      - [ 7.59471178e-01, 5.10183990e-01 ]
      - [ 9.21923757e-01, 4.65703517e-01 ]
      - [ 4.58798736e-01, 2.09008045e-02 ]
      - [ 6.09073937e-01, 2.89927304e-01 ]
      - [ 1.31384000e-01, 4.37243372e-01 ]
      - [ 4.36180562e-01, 8.76349211e-02 ]
      - [ 5.37195563e-01, 7.88883805e-01 ]
      - [ 4.03956443e-01, 7.15900064e-01 ]
      - [ 5.16045153e-01, 3.35335314e-01 ]
      - [ 2.67587245e-01, 5.98280668e-01 ]
      - [ 6.80622399e-01, 3.82606387e-01 ]
      - [ 4.84801322e-01, 3.88921469e-01 ]
      - [ 3.83710623e-01, 5.13351858e-01 ]
      - [ 5.34633636e-01, 1.11777820e-01 ]
      - [ 9.55336511e-01, 4.11849856e-01 ]
      - [ 6.46262586e-01, 6.05859220e-01 ]
      - [ 3.43336761e-01, 5.46360493e-01 ]
      - [ 1.83008313e-01, 5.08438110e-01 ]
      - [ 3.46057676e-02, 5.79349935e-01 ]
      - [ 5.93765199e-01, 4.97559339e-01 ]
      - [ 5.92257440e-01, 3.37373555e-01 ]
      - [ 5.65762043e-01, 3.24103296e-01 ]
      - [ 5.85371494e-01, 3.02639008e-01 ]
      - [ 1.59638464e-01, 3.99441034e-01 ]
      - [ 9.67679799e-01, 4.48065907e-01 ]
      - [ 8.89184713e-01, 5.38597822e-01 ]
      - [ 6.77983224e-01, 5.53356528e-01 ]
      - [ 6.58965051e-01, 5.78517854e-01 ]
      - [ 4.04592156e-01, 3.96539807e-01 ]
      - [ 5.04017651e-01, 3.83533061e-01 ]
      - [ 3.85472715e-01, 4.68703806e-01 ]
      - [ 6.14440382e-01, 5.16841233e-01 ]
      - [ 5.71457386e-01, 3.82862896e-01 ]
      - [ 6.10413134e-01, 3.17262650e-01 ]
      - [ 5.25676429e-01, 8.38293850e-01 ]
      - [ 4.91288304e-01, 8.32619071e-01 ]
   decision_functions:
      -
         sv_count: 771
         rho: 5.3295362614406261e-01
         alpha: [ 1., 1., 1., 1., 1., 1., 1., 1., 1., 1., 1., 1., 1., 1.,
             1., 1., 1., 1., 1., 1., 1., 1., 1., 1., 1., 1., 1., 1., 1.,
             1., 1., 1., 1., 1., 1., 1., 1., 1., 1., 1., 1., 1., 1., 1.,
             1., 1., 1., 1., 1., 1., 1., 1., 1., 1., 1., 1., 1., 1., 1.,
             1., 1., 1., 1., 1., 1., 1., 1., 1., 1., 1., 1., 1., 1., 1.,
             1., 1., 1., 1., 1., 1., 1., 1., 1., 1., 1.,
             7.7955850357074319e-01, 1., 1., 1., 1., 1., 1., 1., 1., 1.,
             1., 1., 1., 1., 1., 1., 1., 1., 1., 1., 1., 1., 1., 1., 1.,
             1., 1., 1., 1., 1., 1., 1., 1., 1., 1., 1., 1., 1., 1., 1.,
             1., 1., 1., 1., 1., 1., 1., 1., 1., 1., 1., 1., 1., 1., 1.,
             1., 1., 1., 1., 1., 1., 1., 1., 1., 1., 1., 1., 1., 1., 1.,
             1., 1., 1., 1., 1., 1., 1., 1., 1., 1., 1., 1., 1., 1., 1.,
             1., 1., 1., 1., 1., 1., 1., 1., 1., 1., 1., 1., 1., 1., 1.,
             1., 1., 1., 1., 1., 1., 1., 1., 1., 1., 1., 1., 1., 1., 1.,
             1., 1., 1., 1., 1., 1., 1., 1., 1., 1., 1., 1., 1., 1., 1.,
             1., 1., 1., 1., 1., 1., 1., 1., 1., 1., 1., 1., 1., 1., 1.,
             1., 1., 1., 1., 1., 1., 1., 1., 1., 1., 1., 1., 1., 1., 1.,
             1., 1., 1., 1., 1., 1., 1., 1., 1., 1., 1., 1., 1., 1., 1.,
             1., 1., 1., 1., 1., 1., 1., 1., 1., 1., 1., 1., 1., 1., 1.,
             1., 1., 1., 1., 1., 1., 1., 1., 1., 1., 1., 1., 1., 1., 1.,
             1., 1., 1., 1., 1., 1., 1., 1., 1., 1., 1., 1., 1., 1., 1.,
             1., 1., 1., 1., 1., 1., 1., 1., 1., 5.8098397393465984e-01,
             1., 1., 1., 1., 1., 1., 1., 1., 1., 1., 1., 1., 1.,
             3.9100409519026530e-01, 1., 1., 1., 1., 1., 1., 1., 1., 1.,
             1., 1., 1., 1., 1., 1., 1., 1., 1., 1., 1., 1., 1., 1., 1.,
             1., 1., 1., 1., 1., 1., 1., 1., 1., 1., 1., 1., 1., 1., 1.,
             1., 1., 1., 1., 1., 1., 1., 1., 1., 1., 1., 1., 1., 1., 1.,
             1., 1., -1., -1., -1., -1., -1., -1., -1., -1., -1., -1.,
             -1., -1., -1., -1., -1., -1., -1., -1., -1., -1., -1., -1.,
             -1., -1., -1., -1., -6.7359612289744075e-01, -1., -1., -1.,
             -1., -1., -1., -1., -1., -1., -1., -1., -1., -1., -1., -1.,
             -1., -1., -1., -1., -1., -1., -1., -1., -1., -1., -1., -1.,
             -8.6821591395054154e-01, -1., -1., -1., -1., -1., -1., -1.,
             -1., -1., -1., -1., -1., -1., -1., -1., -1., -1., -1., -1.,
             -1., -1., -1., -1., -1., -1., -1., -1., -1., -1., -1., -1.,
             -1., -1., -1., -1., -1., -1., -1., -1., -1., -1., -1., -1.,
             -1., -1., -1., -1., -1., -1., -1., -1., -1., -1., -1., -1.,
             -1., -1., -1., -1., -1., -1., -1., -1., -1., -1., -1., -1.,
             -1., -1., -1., -1., -1., -1., -1., -1., -1., -1., -1., -1.,
             -1., -1., -1., -1., -1., -1., -1., -1., -1., -1., -1., -1.,
             -1., -1., -1., -1., -1., -1., -1., -1., -1., -1., -1., -1.,
             -1., -1., -1., -1., -1., -1., -1., -1., -1., -1., -1., -1.,
             -1., -1., -1., -1., -1., -1., -1., -1., -1., -1., -1., -1.,
             -1., -1., -1., -1., -1., -1., -1., -1., -1., -1., -1., -1.,
             -1., -1., -1., -1., -1., -1., -1., -1., -1., -1., -1., -1.,
             -1., -1., -1., -1., -1., -1., -1., -1., -1., -1., -1., -1.,
             -1., -1., -1., -1., -1., -1., -1., -1., -1., -1., -1., -1.,
             -1., -1., -1., -1., -1., -1., -1., -1., -1., -1., -1., -1.,
             -1., -1., -1., -1., -1., -1., -1., -1., -1., -1., -1., -1.,
             -1., -1., -1., -1., -1., -1., -1., -1., -1., -1., -1., -1.,
             -1., -1., -1., -1., -1., -1., -1., -1., -1., -1., -1., -1.,
             -1., -1., -1., -1., -1., -1., -1., -1., -1., -1., -1., -1.,
             -1., -1., -1., -1., -1., -1., -1., -1., -1., -1., -1., -1.,
             -1., -1., -1., -1., -1., -1., -1., -1., -1., -1., -1., -1.,
             -1., -1., -1., -1., -1., -1., -1., -1., -1., -1., -1., -1.,
             -1., -1.5260348272715046e-01, -1., -1., -1., -1., -1., -1.,
             -1., -1., -1., -5.7131053120533917e-02, -1., -1., -1., -1.,
             -1., -1., -1., -1., -1., -1., -1., -1., -1., -1., -1., -1.,
             -1., -1., -1., -1., -1., -1., -1., -1., -1., -1., -1., -1.,
             -1., -1., -1., -1., -1., -1., -1., -1., -1., -1., -1., -1.,
             -1., -1., -1., -1., -1., -1., -1., -1. ]
         index: [ 613, 340, 612, 337, 336, 615, 347, 349, 608, 344, 343,
             341, 619, 324, 323, 325, 321, 320, 334, 333, 332, 331, 329,
             617, 327, 375, 371, 370, 596, 597, 599, 367, 365, 382, 590,
             381, 380, 364, 379, 593, 594, 356, 357, 353, 351, 600, 363,
             601, 602, 603, 361, 359, 604, 643, 267, 264, 641, 642, 262,
             259, 257, 255, 646, 253, 251, 272, 271, 638, 269, 268, 236,
             241, 240, 239, 238, 237, 653, 656, 657, 235, 246, 648, 649,
             650, 245, 651, 652, 307, 309, 308, 631, 302, 632, 622, 318,
             623, 317, 314, 624, 280, 286, 285, 284, 278, 277, 276, 275,
             274, 296, 300, 299, 298, 589, 295, 292, 290, 288, 481, 480,
             479, 485, 550, 477, 552, 553, 475, 494, 543, 544, 490, 545,
             462, 557, 559, 463, 560, 461, 460, 459, 554, 472, 468, 555,
             513, 526, 518, 512, 510, 522, 520, 523, 534, 524, 502, 537,
             500, 539, 497, 542, 414, 418, 416, 576, 413, 412, 411, 427,
             425, 410, 571, 422, 421, 420, 396, 395, 394, 393, 583, 584,
             585, 390, 385, 384, 588, 405, 409, 577, 407, 404, 403, 402,
             400, 399, 449, 564, 565, 450, 566, 447, 567, 444, 443, 456,
             458, 457, 563, 431, 432, 434, 430, 429, 428, 569, 439, 442,
             441, 440, 273, 437, 568, 719, 109, 115, 108, 720, 121, 711,
             119, 721, 116, 715, 730, 93, 731, 732, 94, 87, 85, 736, 723,
             725, 101, 100, 122, 729, 95, 697, 698, 699, 139, 135, 146,
             150, 148, 694, 143, 142, 141, 705, 706, 125, 708, 709, 710,
             133, 701, 702, 129, 755, 756, 757, 32, 35, 30, 28, 759, 754,
             45, 44, 43, 42, 41, 26, 37, 36, 14, 764, 11, 10, 9, 7, 767,
             4, 768, 0, 770, 24, 22, 46, 17, 16, 76, 75, 74, 73, 77, 71,
             742, 68, 82, 743, 738, 55, 748, 749, 751, 50, 752, 49, 753,
             744, 66, 64, 745, 62, 59, 56, 747, 193, 194, 676, 197, 199,
             200, 203, 204, 207, 182, 686, 685, 178, 683, 682, 183, 681,
             188, 679, 191, 220, 223, 224, 226, 227, 660, 228, 232, 233,
             658, 669, 668, 213, 214, 198, 215, 216, 665, 217, 664, 219,
             159, 154, 164, 158, 689, 166, 690, 167, 153, 171, 161, 168,
             692, 156, 162, 160, 547, 663, 548, 644, 696, 640, 610, 546,
             666, 750, 637, 746, 556, 636, 549, 611, 551, 639, 667, 700,
             614, 654, 766, 527, 528, 529, 530, 765, 531, 763, 691, 609,
             762, 693, 769, 532, 525, 655, 662, 538, 647, 536, 758, 540,
             541, 645, 535, 695, 533, 659, 761, 661, 760, 606, 605, 724,
             680, 722, 688, 574, 575, 591, 726, 728, 627, 727, 570, 592,
             678, 626, 625, 572, 573, 580, 714, 620, 581, 713, 579, 712,
             582, 618, 587, 687, 586, 707, 718, 717, 716, 684, 578, 621,
             739, 704, 634, 671, 598, 703, 670, 561, 741, 740, 562, 635,
             616, 734, 733, 677, 630, 629, 628, 672, 737, 673, 633, 558,
             607, 674, 735, 595, 675, 174, 173, 172, 170, 169, 175, 165,
             163, 157, 190, 189, 187, 186, 185, 184, 155, 181, 180, 179,
             177, 176, 137, 136, 134, 132, 138, 131, 130, 152, 151, 149,
             147, 145, 144, 140, 234, 231, 230, 229, 225, 222, 221, 244,
             250, 249, 248, 247, 243, 242, 196, 206, 205, 202, 201, 195,
             192, 218, 212, 211, 210, 209, 208, 54, 53, 52, 51, 48, 47,
             40, 39, 38, 34, 70, 69, 33, 67, 65, 63, 61, 60, 58, 57, 6,
             15, 13, 12, 8, 5, 3, 2, 1, 25, 31, 29, 27, 72, 23, 21, 20,
             19, 18, 107, 114, 113, 112, 111, 110, 106, 105, 104, 103,
             102, 124, 128, 127, 126, 123, 120, 118, 117, 84, 83, 81, 86,
             80, 79, 78, 99, 98, 97, 96, 252, 92, 91, 90, 89, 88, 438,
             454, 453, 452, 451, 448, 446, 445, 436, 435, 433, 467, 466,
             465, 464, 426, 455, 398, 408, 406, 401, 397, 392, 391, 389,
             388, 424, 423, 419, 417, 469, 415, 504, 508, 507, 506, 505,
             509, 503, 501, 499, 519, 517, 516, 515, 514, 511, 483, 482,
             478, 476, 474, 473, 471, 470, 492, 498, 496, 495, 493, 387,
             491, 489, 488, 487, 486, 484, 305, 313, 312, 311, 310, 306,
             315, 304, 303, 301, 297, 326, 322, 319, 316, 270, 266, 265,
             263, 261, 260, 258, 256, 254, 294, 293, 291, 289, 287, 328,
             283, 282, 281, 279, 372, 369, 368, 366, 373, 362, 360, 358,
             386, 383, 378, 377, 376, 374, 339, 346, 345, 342, 338, 335,
             330, 355, 521, 354, 352, 350, 348 ]
